-6.52253 9.95128 2.64601 4.50012 -2.96622 1.036 -5.20913 -3.51761 5.34591 -0.0807437 
1.28413 -1.11336 0.566408 0.661407 0.0733219 0.775929 0.994444 -0.276938 0.969807 0.566942 
2.58914 -2.91042 1.51118 0.709674 0.65665 -0.715241 1.05763 0.565943 1.9755 0.861205 
1.62206 -1.0593 0.616 0.142834 0.301492 0.88233 0.171842 0.145039 0.618347 0.846117 
0.428134 0.465997 0.756752 0.256637 1.05323 1.03209 1.01034 0.447403 0.246715 0.118259 
-3.3778 4.12186 2.45134 3.39458 -4.87008 -2.34009 3.28799 5.95253 -2.4831 -0.248415 
-6.70883 5.35943 -2.00857 -1.91124 4.05145 -3.35325 -3.9103 6.62524 1.87415 6.31297 
0.874897 0.07258 0.480334 0.318136 0.300803 0.744952 0.884338 -0.071839 0.199606 -0.0384642 
0.141134 2.757 1.09465 -1.00398 1.116 1.64023 0.970495 0.631274 -0.783085 -0.697833 
-1.40028 2.26631 -5.17496 2.99105 3.07177 3.76267 0.435656 -0.87127 -1.77345 0.277759 
-0.252718 1.57622 0.168715 0.333073 0.299502 1.26796 0.915241 0.0195951 -0.162021 0.19609 
1.40934 -0.662922 1.11496 -0.0407104 0.279821 0.993481 0.460997 0.446994 0.59325 0.868372 
0.182074 0.590543 0.0961282 0.0316512 0.909862 0.552108 0.477412 0.0132865 -0.0784451 0.601364 
0.931846 -0.161656 0.586759 0.378564 1.04717 1.01524 0.564189 0.0237773 0.479022 0.357398 
0.843107 0.132393 0.63137 0.624092 1.05803 1.1458 0.929615 0.477539 0.672907 -0.11784 
3.41001 -4.06842 1.79166 1.11346 0.371388 -0.772654 0.87833 0.270824 2.38802 1.23471 
