0.274528 1.08144 1.27858 1.07131 0.829416 -0.514366 -0.355886 0.330334 -0.0734068 0.404575 -0.113789 0.974935 0.15293 0.58359 0.812531 1.23408 
0.295672 0.382094 0.505033 0.221694 0.85035 0.215346 0.236311 0.218482 0.0988745 -0.294134 0.204466 0.393225 0.231656 0.513962 0.336651 1.36137 
-0.147273 0.12512 0.493548 1.00501 0.837813 0.290048 -0.0357267 0.815734 0.241474 -0.326494 -0.201493 0.417358 0.64408 0.584052 0.845961 0.858532 
0.0983427 0.866258 1.11881 0.410915 0.104132 -0.0274963 -0.444496 0.216799 -0.0314772 0.0549796 -0.310985 0.56218 0.0869427 0.442102 0.621514 1.25612 
0.065169 0.525296 0.448488 0.197883 0.100125 -0.227858 0.468697 0.637888 0.473883 0.545961 0.621275 0.803734 0.645156 0.323476 0.201328 1.28396 
-0.157267 0.475251 1.15659 0.182966 0.124175 -0.271917 -0.532222 0.159879 0.580887 0.186579 0.189104 0.77945 0.522979 0.802569 0.801929 0.826578 
-0.00807194 0.140266 0.444602 0.938323 -0.0224449 -0.153208 -0.189407 0.584515 -0.140111 0.243229 0.242631 0.12686 0.0923497 0.913309 0.190018 1.23492 
-0.361518 0.935543 1.00729 0.268149 0.478994 -0.396607 0.130958 0.0487769 0.508893 0.0651105 0.621984 0.393922 -0.0899972 0.228004 0.0793606 1.06156 
-0.357977 1.14265 1.488 0.839697 0.895277 -0.25342 -0.563651 0.383049 -0.0340532 -0.201637 -0.470799 0.163815 0.35464 0.555692 0.212276 1.03711 
0.222847 1.04271 0.947279 0.380712 0.158551 0.116172 0.234943 0.877169 -0.272292 -0.267959 0.267075 0.0599816 0.227329 0.784515 0.111605 1.26771 
-0.0971082 0.599761 1.28819 0.77656 -0.0385633 0.411598 0.535356 -0.131548 0.290128 -0.326296 0.329616 0.714749 0.200214 0.64806 0.71613 1.31653 
-0.311588 0.0260382 0.634383 1.18415 0.549 -0.0511194 -0.439672 0.628178 0.578119 -0.187957 0.416964 1.10553 0.752679 0.612569 0.360187 1.34515 
0.16669 0.37247 1.39414 -0.00331388 0.332839 0.430879 0.840245 0.890029 0.0888811 0.153645 0.400803 0.699499 -0.0583725 0.291171 0.635168 0.888571 
-0.589432 0.868384 1.41095 0.487203 0.548503 0.312176 0.0743 0.662869 0.435903 0.428627 0.579918 0.705007 -0.0978023 0.041506 0.823917 1.42297 
0.470803 0.612361 0.398146 0.834979 -0.00593621 0.233408 -0.166663 0.25875 -0.0597874 -0.0179962 0.550399 0.147497 0.2705 0.573195 0.761309 1.16843 
0.511269 0.789239 1.16016 0.501179 0.29684 0.416298 0.37357 0.927625 -0.0501044 -0.347957 -0.0965822 0.42639 0.0775952 0.0390547 0.276709 1.3699 
