-1.41969 1.72317 -0.601505 -0.655551 0.22222 -0.178022 -0.581238 0.675343 -0.536537 0.203455 
0.280133 -0.808088 -0.207437 0.315923 -0.633635 0.296424 0.395275 -0.780604 0.245391 -0.0968393 
1.29344 -1.65048 0.767858 0.271687 0.000982487 -0.473306 0.657063 -0.0437384 0.625329 -0.299199 
0.638799 -0.879886 -0.257139 -0.306403 -0.272423 0.330735 -0.624957 -0.121488 -0.0968437 0.35831 
-0.188145 -0.132067 0.03269 -0.010285 0.337432 0.0133346 0.143825 0.0560393 -0.00649921 -0.173292 
-0.803955 1.01826 -0.460893 0.114627 -0.352283 0.0120424 0.0840875 0.488248 -0.670165 0.390343 
-1.41662 1.98154 0.0907171 -0.704691 0.129951 -0.597698 0.222848 0.51944 0.00962324 -0.23367 
0.088068 -0.0807153 -0.164705 0.0583937 -0.405279 -0.147234 0.0128367 -0.454858 -0.286734 -0.485278 
-0.231358 0.966628 0.131538 -0.633056 0.276944 0.0766236 -0.302922 0.447086 -0.478313 -0.347629 
-1.53855 1.02656 -0.999843 -0.111038 0.130301 -0.138263 -0.333805 -0.0284763 -0.699561 0.0536438 
-0.871143 0.714352 -0.367792 0.0997735 -0.460518 -0.155102 -0.0635432 -0.322079 -0.185586 0.101245 
0.48809 -0.541188 0.4594 -0.436368 -0.41396 0.338322 -0.317613 0.0487298 -0.0622564 0.314811 
-0.441993 -0.0723126 -0.639585 -0.297101 0.207526 -0.625013 -0.504967 -0.239162 -0.309555 0.444488 
0.203389 -0.390143 -0.156887 0.0465595 0.370057 0.164901 -0.31375 -0.342025 0.0389844 -0.047035 
0.153547 -0.23069 -0.0375812 0.321714 0.344209 0.239149 0.052275 0.103992 0.30956 -0.514694 
1.72168 -2.10601 1.02039 0.712892 -0.253029 -0.114313 0.499546 -0.413631 0.843621 -0.20181 
